#ifndef WEIGHTS3_H
#define WEIGHTS3_H
#include <stdint.h>

// serving_default_conv2d_input:0
const int8_t serving_default_conv2d_input_0[] = {

    171933433856.0, 4.861730544660455e+30, 4.611422575863585e+24, 1.8013359303867968e+22, 6.9771494809480634e+22, 7.5550769749204825e+31, 4.558129981266084e+30, 1.8496028582912983e+20, 4.8565378093196896e+33, 6.9771494809480634e+22, 
    7.5550769749204825e+31, 1.1692422848166084e-19, 1.3563156426940112e-19, 10745839616.0, 4.3607751764242217e+27, 4.5448178946033976e+30, 1.3555984512535336e-19, 1.3563156426940112e-19, 9.841044645853003e-12, 9.843942501419622e-12, 
    9.843942501419622e-12, 1.3563127992606555e-19, 1.3563156426940112e-19, 6.843550205207877e+25, 1.2396967596170078e+28, 1.3039443656770455e-11, 6.948130086389139e+22, 1.3563127992606555e-19, 1.3563156426940112e-19, 1.3563156426940112e-19, 
    641.017578125, 0.009784056805074215, 1.613149536025015e-19, 6.7422192063862815e+22, 1.1692422848166084e-19, 1.3563156426940112e-19, 171933433856.0, 4.861730544660455e+30, 1.1727247151954567e-19, 1.3563156426940112e-19, 
    9.102080200662499e-12, 9.843942501419622e-12, 1.170400208427212e-19, 1.3563156426940112e-19, 7.743193486464114e+26, 2.0705789930501615e-19, 1.2410359046923875e+28, 1.3039443656770455e-11, 6.948130086389139e+22, 1.3563127992606555e-19, 
    1.3563156426940112e-19, 1.3563156426940112e-19, 6.857130352318491e+22, 1.8492432740085504e+20, 5.083160722327074e+31, 4.734057827502299e+22, 7.006698498823167e+22, 2.0621423970369741e-19, 4.734176272172499e+22, 1.9684046098118458e-19, 
    3.5162675722510972e-12, 5.147693637437919e+22, 5.076071581320854e+31, 2.958786142188937e+21
};

// sequential/flatten/Const
const int8_t sequential_flatten_Const[] = {

    -1, 72
};

// sequential/dense/BiasAdd/ReadVariableOp
const int32_t sequential_dense_BiasAdd_ReadVariableOp[] = {

    -99, 289, 265, 97, -63, -80, 100, -48, -150, -353
};

// sequential/dense/MatMul
const int8_t sequential_dense_MatMul[] = {

    -7, 15, -7, -85, -21, -5, -56, -25, -41, -28, 
    41, 1, 58, 7, 45, 14, 47, 10, 14, -26, 
    -35, 18, -44, -16, -5, 29, -75, -15, -27, -4, 
    -43, -6, -68, -32, -18, 42, 51, -27, 24, -29, 
    -29, -11, -40, -62, -13, 51, -75, -30, 52, 39, 
    -15, -83, 33, 9, 14, 30, 34, 10, -6, -2, 
    -36, -35, -111, -7, -33, -17, -4, -30, -2, -7, 
    2, -10, 48, -34, -82, 11, 7, -26, -8, -56, 
    -39, 43, -57, -53, -28, 20, -127, -21, -75, -18, 
    -6, 11, -6, -30, 4, 4, -69, -55, 11, -6, 
    3, 49, 5, -43, -11, 12, -47, 6, -17, 14, 
    -20, 22, -34, 2, -34, 22, -34, -61, 11, 36, 
    -15, -48, -13, -7, 13, 16, -19, -41, -4, 27, 
    -74, -31, 3, 32, -3, -16, 2, 20, -38, 29, 
    -71, -67, -35, 21, -46, -16, 54, -18, -4, 0, 
    34, 37, 38, 21, -31, -59, 59, 30, 20, -12, 
    -22, -14, -14, 18, -14, -41, 5, -21, -6, -56, 
    -70, 36, -13, -33, 16, -13, -15, -45, 16, -31, 
    24, -8, -19, -37, -27, -22, 22, -18, 37, -33, 
    51, 3, -43, -12, -12, -48, 10, 19, -9, -18, 
    7, 45, -63, 29, -71, -15, -54, 29, 1, 23, 
    6, 44, -83, -56, -79, -10, -39, -46, 52, 65, 
    -10, -5, 45, 17, 0, -34, -8, -57, 55, -5, 
    20, -14, 13, 0, 0, -2, 77, -42, 28, 25, 
    -10, -66, 0, 22, -6, -43, -7, -3, 14, -29, 
    35, -74, -3, 12, 2, -1, 53, 7, 50, 23, 
    -47, -51, -30, 3, 35, 18, 11, 9, -21, -34, 
    -37, -35, -19, -16, 54, -4, -10, -15, 7, -20, 
    32, 9, 24, -23, -56, 17, -8, 7, 7, -30, 
    -82, -2, -41, -13, -103, -44, -5, -5, 16, -54, 
    -49, -32, -81, 9, 16, -26, 23, 7, 12, -55, 
    -44, -19, -32, 46, 14, -38, -37, 3, -57, 43, 
    34, 11, -16, 1, -47, -28, -39, 34, -23, -5, 
    22, 8, -69, 15, -1, 18, -33, -15, 0, 38, 
    0, 23, 13, 23, -13, 5, -12, -36, 41, 15, 
    42, -19, -12, -20, -10, 33, 72, -46, 41, 11, 
    19, 21, -16, -56, 1, 11, -13, 31, -57, 19, 
    -19, 35, -54, -29, 14, 8, -28, -58, -17, 18, 
    64, 16, 39, 19, 14, 4, 3, -7, -14, 29, 
    38, 13, 32, 0, -28, 41, -10, 5, 9, -12, 
    17, 2, 0, -39, -69, -47, -62, -59, 33, 3, 
    -62, 33, -23, -41, -31, 3, -29, -14, 40, -35, 
    6, -27, -38, -28, -30, -26, 15, -20, 23, -8, 
    31, 7, -1, -8, -118, -75, 10, -1, -38, -42, 
    -31, 18, 34, 35, -33, -36, 16, -14, -10, -44, 
    -54, 8, 28, -67, 27, -53, -3, 6, -75, -93, 
    0, 3, -62, -23, -6, 17, 9, 53, -20, -45, 
    -36, 30, 4, 5, 8, -3, -66, -22, -50, -56, 
    11, -9, 20, -97, 9, 33, 24, 5, 38, 3, 
    -28, 12, -9, -30, 25, 13, 40, 15, 4, -37, 
    -82, 52, -44, 3, -61, -58, 39, 25, 22, 7, 
    47, -51, -4, -26, 6, -10, 24, 3, 42, -12, 
    -48, 22, -16, 16, 12, 14, -4, 19, 11, -31, 
    21, -12, 9, -1, -7, -18, -22, -31, -13, -35, 
    -30, 13, -52, 6, -33, -11, -8, -3, -39, 26, 
    14, 18, -77, -93, -32, 6, 5, -11, -15, -19, 
    -59, -1, 34, 27, -26, 17, 40, 13, -12, -73, 
    -32, -15, 63, -34, 63, -5, 31, 2, -12, -52, 
    -5, 4, 16, 13, 11, -5, 12, -19, -72, -19, 
    -53, 9, 46, 17, 29, -14, -44, -8, -1, -1, 
    14, -35, -4, -6, 29, 1, -2, -16, 41, 0, 
    43, -42, -93, -13, -58, -2, 35, -1, 15, 31, 
    51, -66, 41, -3, -47, -20, 16, -124, 27, 6, 
    -6, -23, 7, 4, 18, -52, 3, -47, 15, 8, 
    40, 21, 50, -39, -84, -18, 7, 4, 4, 46, 
    -9, -22, 22, 16, -6, 4, 19, -3, 4, 5, 
    -43, -3, -51, -1, 34, 25, 36, -9, -110, 11, 
    -77, -10, 15, -39, 38, 20, 18, 11, 43, -21, 
    -34, -21, -30, -27, 11, 11, 41, -9, 21, -21, 
    -36, 10, 16, 16, -5, 25, -19, -21, 14, 37, 
    -14, -30, -9, -80, -33, -51, -34, 38, 25, -38, 
    26, -36, -23, -4, -9, -30, 12, -9, -14, -32
};

// sequential/conv2d/BiasAdd/ReadVariableOp
const int32_t sequential_conv2d_BiasAdd_ReadVariableOp[] = {

    2020, 1013, 9021, 11470, 20727, 168, 19878, -693
};

// sequential/conv2d/Conv2D
const int8_t sequential_conv2d_Conv2D[] = {

    107, -2, -127, -24, 91, -48, -104, 96, 80, 95, 
    13, -29, 88, 121, -34, 59, 127, 77, -97, 35, 
    42, -4, -8, 86, 86, -60, -127, 76, 34, 46, 
    -17, -127, -126, 74, 15, 35, 84, -25, 69, -45, 
    -127, 37, -104, -69, 4, -9, 97, 127, -24, 118, 
    116, -74, -14, 30, 99, 89, 127, 16, -65, 32, 
    -97, -120, -83, 127, 116, -47, 118, 6, 7, 59, 
    -34, 34
};

// sequential/max_pooling2d/MaxPool
const int8_t sequential_max_pooling2d_MaxPool[] = {

    111, 108, 117, 109, 110, 115, 46, 10, 32, 32, 
    32, 32, 32, 32, 32, 32, 114, 111, 0, 0, 
    0, 114, 112, 0, 0, 0, 114, 47, 0, 0, 
    0, 114, 47, 0, 0, 0, 114, 48, 0, 0, 
    0, -38, 9, 95, 112, 97, 114, 115, 101, 95, 
    116, 100, 47, 1, 0, 0, 114, 114, 0, 0, 
    0, 122, 26, 95, 72, 116, 109, 108, 70, 114, 
    97, 109
};

// sequential/flatten/Reshape
const int8_t sequential_flatten_Reshape[] = {

    32, 32, 32, 32, 32, 32, 32, 82, 101, 116, 
    117, 114, 110, 32, 116, 104, 101, 32, 108, 105, 
    115, 116, 32, 111, 102, 32, 116, 104, 101, 97, 
    100, 32, 114, 111, 119, 32, 101, 108, 101, 109, 
    101, 110, 116, 115, 32, 102, 114, 111, 109, 32, 
    116, 104, 101, 32, 112, 97, 114, 115, 101, 100, 
    32, 116, 97, 98, 108, 101, 32, 101, 108, 101, 
    109, 101
};

// StatefulPartitionedCall:0
const int8_t StatefulPartitionedCall_0[] = {

    4.74718222358922e+27, 8.399505169376225e-33, 1.3563156426940112e-19, 1.3563156426940112e-19, 3.997904518718703e-41, 1.0326471064077871e-38, 2.2009771782904863e-10, 2.535301200456459e+30, 6.58610278232664e-44, 1.7378903554556381e-41
};

#endif // WEIGHTS3_H
